{
  "levels": [
    {
      "inputs": [0.8009716542282045, 0.6900060837741837, 0.10036261569735117, 0, 0, 0],
      "outputs": [1, 1, 1, 1, 1, 0],
      "biases": [
        -0.03047002593224382, 0.006240819555091565, 0.04026260601389892, 0.043475517234841304,
        -0.26607490832517233, 0.23607196046299778
      ],
      "weights": [
        [
          0.11300002413556735, 0.1368923646910355, 0.1975413923171376, 0.12986735136541683,
          0.05459191319126766, 0.3105468487161297
        ],
        [
          0.22915578098961564, 0.14310509917571185, -0.06993939740791011, 0.14511601535220964,
          0.008430677939321923, -0.14348793852846117
        ],
        [
          -0.11683074323393368, -0.049312252638052875, 0.1250961012033809, 0.2356200471905637,
          -0.1316959314822854, 0.36813928237677485
        ],
        [
          -0.09970542650158, -0.1945526796149307, 0.027836497403606754, 0.13522794509355332,
          -0.011909919047069742, -0.12485786569885485
        ],
        [
          -0.04211195573280267, -0.2476974218580379, -0.1552827850122059, 0.1518849331665961,
          -0.17846227030424894, -0.05685036160488849
        ],
        [
          0.384142264839926, 0.32060733212200615, -0.11397042177333519, 0.11526751394143996,
          -0.15222374323572246, -0.20626864666452402
        ]
      ]
    },
    {
      "inputs": [1, 1, 1, 1, 1, 0],
      "outputs": [1, 0, 0, 0],
      "biases": [
        -0.26051792550075237, -0.2743268821166476, 0.2437254632725035, 0.10807571873759514
      ],
      "weights": [
        [0.2656228297358091, -0.10481100063556095, 0.07583197997884608, 0.037207668040915576],
        [-0.13247280104343312, -0.24355141891379908, 0.08561279249227119, -0.26011557628345994],
        [-0.16192939535955503, 0.06321308401023942, -0.05065479319865174, -0.17770215497526284],
        [0.06912417560211287, 0.03240839942180099, 0.20932012641674907, 0.07200810298441401],
        [-0.19429380803233245, -0.13865375365375143, -0.19048470971125558, -0.003877786900623806],
        [-0.06255814180289332, -0.28264238998444235, 0.14966199892840734, -0.13035869616335105]
      ]
    }
  ]
}
