{
    "levels": [
        {
            "inputs": [0,0,0,0,0.4744684436300465,0.6625879707942531],
            "outputs": [1,1,1,1,1,0],
            "biases": [0.11168051765495385,-0.03492202762318922,-0.058869194087729435,0.09616589951319413,-0.4058863564768018,0.3044277265858375],
            "weights": [
                [0.11881054732598681,0.021106395093318492,0.21035395773396504,0.13774864153212768,0.10190192505415348,0.4588794016783206],
                [0.22566112470452315,0.24338354117248834,0.11807952967190186,0.16550787418731222,-0.20857168922024816,-0.03275904052933379],
                [-0.3431972464353111,-0.24913052451373638,0.2618698726611661,0.21325640749722796,-0.3165031911606884,0.4411195511055509],
                [-0.19604691696766002,-0.4301627740756185,0.0340207778211324,0.015537488473357133,0.09045930055727235,-0.25362387170060613],
                [0.1729616388794838,-0.39508407795842604,0.031409580538411974,0.19408065311154357,-0.19313849026453092,0.11146607431623247],
                [0.4244964439644663,0.24364631950818427,-0.1028945898250154,0.2484025839927756,-0.12676213667751035,-0.2991012188277143]
            ]
        },
        {
            "inputs": [1,1,1,1,1,0],
            "outputs": [1,0,0,0],
            "biases": [-0.22837472747139037,-0.2742282189169614,0.1821058703945042,0.01937651997880188],
            "weights": [
                [0.20817756466191784,-0.0394085422316747,-0.03118272401182985,-0.1085762080232654],
                [-0.17027940054700916,-0.22477067053980218,0.1658304376701207,-0.30211094198497784],
                [-0.23238672502205598,-0.0629261881835036,-0.13784274056685936,-0.27443311899667217],
                [0.22795051219689863,0.05209574624544039,0.18733951039333607,0.08249565240542606],
                [-0.21605060876400203,-0.12523303830328666,-0.031392584863346125,-0.13139790203622873],
                [-0.2897051946225375,-0.3169201843263877,0.16140231923260143,-0.1464271457389033]
            ]
        }
    ]
}